// Auto generated by utensor-cli

#include <stdint.h>

const int inline_dense_1_MatMul_eightbit_x_input__port__0_reshape_dims_0 [ 1 ] = {  -1,  };
#include <stdint.h>

const int inline_dense_1_MatMul_eightbit_x_input__port__0_reduction_dims_0 [ 1 ] = {  0,  };
#include <stdint.h>

const float inline_dense_1_kernel_0 [ 660 ] = {  0.021732552,  -0.19562544,  0.33049676,  0.14678086,  0.019347671,  -0.08974163,  -0.007763962,  -0.11949947,  0.16790725,  -0.09400016,  0.118771516,  0.19462676,  0.024976283,  -0.48136193,  -0.06903082,  0.17646842,  0.12686306,  -0.025781764,  -0.18969059,  -0.11144863,  -0.4135665,  0.09862585,  0.43798363,  0.20011176,  0.087511234,  -0.074567534,  -0.15168817,  0.13016059,  -0.016939614,  -0.034223355,  -0.1369334,  0.17066734,  -0.36991778,  -0.14632505,  -0.2348939,  0.27557248,  0.09202031,  0.021672625,  -0.041065175,  0.041244984,  -0.20795818,  -0.032614045,  -0.04461233,  0.12802537,  -0.096144065,  -0.02234648,  -0.23095329,  -0.18481013,  -0.31543422,  -0.11373074,  -0.04568128,  0.2534288,  0.060477007,  -0.27415344,  -0.10434507,  0.04282042,  -0.015027002,  0.09885296,  0.110069014,  -0.21414134,  0.21989988,  -0.370048,  0.025806187,  -0.051650904,  0.0028529996,  -0.011954297,  -0.17524436,  -0.08195889,  -0.092696056,  -0.19908844,  -0.092378914,  -0.04845105,  -0.0027746381,  0.056966618,  0.10881237,  -0.4040564,  0.16253121,  -0.1768516,  0.044699434,  -0.01126055,  -0.25374657,  0.17253308,  0.012398108,  -0.05838532,  0.098889016,  0.02054831,  -0.34604174,  -0.18249871,  -0.22510602,  0.26869813,  0.15564016,  0.05178064,  -0.18568823,  -0.31257218,  0.14615956,  -0.0149424905,  0.0060493345,  -0.053365335,  -0.2865455,  -0.4111435,  -0.3737323,  -0.143856,  -0.00046248105,  -0.029018182,  -0.01834133,  0.06331682,  0.11111077,  0.10096363,  -0.38856336,  -0.14270873,  0.07646152,  -0.03647838,  -0.0025819906,  -0.1318361,  -0.04117163,  -0.06940517,  -0.16235642,  -0.36148608,  -0.15858229,  -0.27729392,  0.21984059,  -0.303067,  0.054570578,  -0.1581156,  -0.21558625,  -0.22242007,  -0.4842359,  0.0064273095,  0.10878999,  -0.07896338,  -0.3873298,  -0.0004238263,  -0.20587447,  -0.40224093,  -0.31502312,  0.045973666,  -0.41387165,  0.18276264,  -0.373841,  -0.47062853,  0.20108719,  0.06719174,  0.0021296982,  -0.025826333,  -0.44757304,  -0.5217653,  -0.20842445,  0.1323276,  -0.28241485,  -0.28292072,  0.029366424,  0.0002012667,  -0.0026478409,  0.036386564,  0.027559096,  -0.022925714,  -0.0054024295,  -0.26226845,  -0.16123308,  -0.02091998,  -0.17703345,  0.02549285,  -0.036877174,  -0.0088186115,  -0.12361504,  -0.06981517,  -0.48702312,  0.07738479,  -0.21450278,  -0.099548854,  0.10114222,  -0.1563897,  -0.37581277,  0.13339326,  0.069289066,  0.04955778,  0.058052585,  -0.22224581,  -0.17282636,  -0.34821236,  -0.4429112,  -0.1514946,  0.027013427,  -0.03890443,  -0.12042734,  -0.33909023,  0.115982674,  -0.20362823,  -0.069495946,  0.021067481,  -0.4048519,  -0.114021115,  -0.002499023,  0.0065599303,  0.11266332,  -0.030444752,  0.033935707,  0.29761735,  -0.035396706,  -0.08201499,  -0.06210321,  -0.3705665,  -0.0062463046,  0.026084505,  -0.3929086,  -0.25375962,  -0.1264817,  -0.40016916,  0.21342576,  0.22855505,  -0.25466168,  -0.121634275,  -0.09169492,  0.01939238,  -0.35159338,  0.20635785,  0.088815704,  0.1219631,  -0.39642766,  -0.30633324,  -0.080253355,  -0.25610152,  -0.003535504,  0.005929143,  0.057008307,  -0.4800754,  -0.1973189,  -0.23979732,  -0.21192227,  0.14365248,  0.08623624,  -0.014743713,  -0.0035601377,  -0.0010655689,  -0.1516039,  -0.028659929,  -0.25392997,  -0.17176104,  0.15694062,  -0.020250471,  -0.44693643,  -0.05957834,  0.002374031,  0.08783649,  -0.2943291,  -0.06856095,  -0.21773268,  -0.3344133,  -0.0005098771,  -0.29972923,  0.04317285,  -0.023426745,  0.0013971231,  -0.072810456,  0.027935488,  0.13742232,  -0.25200215,  0.27925262,  0.16187635,  -0.5059727,  -0.3408895,  0.12902203,  0.0039760615,  -0.010982746,  0.07873561,  -0.39149007,  -0.2684936,  0.032274656,  -0.2192644,  -0.11979196,  -0.007568032,  0.013001106,  -0.0022176648,  0.018360011,  -0.07306362,  -0.007543892,  -0.0110629685,  -0.079452075,  -0.083959006,  -0.030551177,  -0.38999042,  -0.23610777,  -0.035715498,  -0.11354339,  -0.017234623,  -0.18931057,  -0.44110203,  0.02693575,  -0.2799292,  0.013188957,  -0.100658625,  -0.08486256,  0.040568262,  0.10211862,  0.05189192,  -0.016491832,  -0.15904742,  -0.14694983,  -0.36922663,  -0.03463202,  -0.4186787,  -0.108378574,  0.00650294,  -0.05344019,  -0.11145239,  -0.14211492,  -0.32819974,  -0.27317977,  -0.023309309,  -0.11010022,  -0.15457407,  0.043572735,  -0.00094650744,  0.026567014,  -0.146679,  -0.13857028,  0.050391547,  -0.21199052,  -0.1381216,  -0.26116347,  -0.25799093,  -0.18879348,  0.07581702,  0.009992357,  -0.3335185,  0.06719493,  -0.15163435,  -0.26597583,  -0.094134234,  0.00976786,  0.009979409,  0.04014076,  -0.094182245,  -0.06213209,  0.235485,  -0.042460244,  -0.12213038,  -0.31245503,  -0.42840812,  -0.3652773,  0.06430563,  0.10460238,  0.005034044,  -0.023184802,  -0.3902147,  -0.3528453,  0.0048122946,  -0.2978396,  -0.041319422,  -0.06965927,  -0.10460265,  -0.024114814,  -0.0008384712,  -0.15690231,  -0.18676077,  -0.06705397,  -0.36424538,  -0.18337633,  -0.026754443,  -0.0620892,  0.12553705,  0.09514765,  0.006590005,  0.1588235,  0.22696967,  0.079845674,  -0.45593444,  -0.049345713,  0.0008268133,  -0.026636476,  0.018012874,  -0.0073307757,  0.14698866,  -0.20266837,  -0.3558463,  -0.0068785036,  0.052074105,  -0.2642391,  -0.15499079,  0.026109582,  -0.24148263,  -0.045843214,  -0.0030026955,  -0.007945284,  -0.14509311,  -0.24276863,  0.055179674,  -0.04404526,  -0.09256824,  -0.3807192,  0.0107703395,  -0.008955796,  -0.0011592318,  -0.40203264,  -0.14849575,  -0.026776392,  -0.12013236,  -0.08591463,  -0.32139668,  0.14697474,  0.19783595,  -0.23976706,  0.11517838,  0.048139136,  -0.2698993,  -0.39983973,  -0.14001918,  -0.31416008,  0.061423477,  0.10424302,  0.0431942,  -0.012303961,  0.10209301,  0.13101807,  0.005424165,  0.108735606,  -0.106865734,  -0.15082611,  -0.3032705,  -0.40850338,  -0.20894398,  -0.008817913,  -0.0491759,  -0.03206421,  0.009651936,  -0.21732265,  0.12497368,  0.039433833,  -0.2611981,  -0.35469753,  -0.10960791,  -0.0136426035,  0.022817805,  -0.24875183,  -0.10999421,  0.00066071504,  -0.226885,  -0.32875323,  -0.045657087,  -0.2525094,  -0.30504224,  -0.11800274,  -0.13166466,  -0.14711295,  -0.01957683,  -0.08071053,  -0.38416827,  -0.05156071,  -0.14774162,  -0.0038913412,  -0.06554736,  -0.02551079,  -0.034225203,  -0.33430684,  -0.04961056,  -0.0032981061,  -0.30369464,  -0.088560134,  0.025909545,  0.005057502,  0.16103214,  0.033124223,  -0.18300457,  -0.07704646,  0.03027317,  -0.428455,  0.11664626,  -0.17990863,  0.0681861,  -0.083113596,  -0.06322491,  -0.07209681,  -0.37622783,  0.20215361,  0.022748832,  -0.0007958652,  0.122317605,  0.00016139126,  -0.08759709,  -0.21714507,  -0.07409246,  -0.014523457,  -0.68754125,  -0.112548895,  -0.10954104,  -0.35758397,  0.07224255,  -0.37981865,  0.09937665,  -0.32499,  -0.22218506,  0.4805395,  -0.086075574,  -0.10500404,  -0.386431,  -0.002221556,  -0.3262066,  -0.23504022,  -0.09596105,  -0.44218227,  -0.11108372,  0.22018462,  -0.027015908,  0.060192212,  0.11981991,  -0.23125744,  -0.25229657,  0.07695113,  -0.21097408,  -0.09122015,  -0.11264295,  -0.007145159,  -0.12231936,  0.058969278,  0.19132079,  -0.011663333,  -0.053058773,  -0.24141914,  0.0026729468,  -0.12817068,  0.11943913,  -0.19089149,  -0.096379705,  -0.08020584,  0.05072417,  -0.18142863,  -0.1028725,  0.06757355,  -0.12116346,  -0.14133191,  -0.032671146,  0.0013386393,  0.065289944,  -0.4704033,  -0.016255755,  -0.09169723,  -0.28502703,  0.053441346,  -0.2940526,  0.1318751,  -0.1406269,  -0.46596485,  -0.14358756,  -0.14809918,  -0.19433647,  -0.09748063,  0.07827595,  -0.09535253,  -0.2371936,  -0.312238,  -0.17649516,  0.007753148,  -0.45166254,  -0.3555224,  0.2532223,  -0.027523577,  -0.42032003,  0.04670788,  -0.5996159,  -0.5120291,  -0.33910358,  -0.17394497,  -0.40667138,  -0.56623155,  -0.33651948,  -0.2033213,  -0.21664883,  -0.47867215,  -0.12737685,  -0.16732359,  -0.22301789,  0.3376699,  0.08144219,  -0.4723848,  -0.18979172,  -0.50790364,  -0.22812574,  -0.09524163,  -0.4056049,  -0.3642679,  -0.39462516,  -0.20048076,  -0.020686142,  -0.24670929,  -0.14656837,  -0.26465172,  -0.354022,  0.12783341,  0.015591795,  -0.07026436,  0.10878609,  -0.00847958,  0.054994177,  -0.1280156,  -0.03560198,  -0.023370963,  -0.38661465,  -0.30635428,  0.15807645,  0.010773005,  0.11238022,  0.008286253,  -0.05804776,  -0.18049204,  0.06968732,  0.06250127,  0.14087306,  -0.1767416,  0.009487833,  -0.32461727,  -0.0156070255,  -0.019182086,  -0.24405064,  -0.3550767,  -0.16368528,  -0.008545016,  -0.44971475,  -0.13448292,  0.03687001,  0.095761515,  -0.41896647,  0.11811725,  -0.07190675,  -0.1390761,  -0.08464093,  -0.40926334,  -0.10387078,  -0.022336915,  0.10193707,  -0.06456361,  -0.16865787,  -0.02517963,  -0.3211917,  -0.2452469,  -0.11008187,  -0.028378783,  -0.3661337,  -0.04900587,  -0.10384696,  0.018388258,  0.008007988,  -0.09181609,  -0.15149508,  -0.03739733,  -0.3676934,  -0.08502278,  0.029684758,  0.24110217,  -0.42549115,  -0.34378195,  -0.13890424,  -0.09804055,  -0.073123656,  0.109813996,  0.06479601,  -0.0003972266,  -0.48547056,  -0.24218233,  0.021673901,  -0.415383,  };
#include <stdint.h>

const int inline_dense_1_MatMul_eightbit_dense_1_kernel_read__port__0_reshape_dims_0 [ 1 ] = {  -1,  };
#include <stdint.h>

const int inline_dense_1_MatMul_eightbit_dense_1_kernel_read__port__0_reduction_dims_0 [ 1 ] = {  0,  };
#include <stdint.h>

const float inline_dense_1_bias_0 [ 20 ] = {  -0.111297466,  -0.078026764,  -0.20480663,  0.15931615,  -0.16869152,  -0.2367671,  -0.12446604,  -0.08464989,  -0.107977785,  -0.06663969,  -0.22565597,  -0.24120933,  0.30767182,  -0.1685446,  -0.13133721,  -0.33585763,  -0.13260965,  -0.029312432,  -0.13346744,  -0.09926933,  };
#include <stdint.h>

const int inline_dense_1_BiasAdd_eightbit_dense_1_bias_read__port__0_reshape_dims_0 [ 1 ] = {  -1,  };
#include <stdint.h>

const int inline_dense_1_BiasAdd_eightbit_dense_1_bias_read__port__0_reduction_dims_0 [ 1 ] = {  0,  };
#include <stdint.h>

const float inline_dense_2_kernel_0 [ 200 ] = {  -0.11787382,  0.042680416,  0.083281256,  0.27243006,  -0.12030962,  -0.100692794,  0.22024909,  -0.11570543,  0.21152095,  0.07323944,  0.38273785,  -0.23607211,  0.3951018,  0.07089939,  -0.17434429,  -0.4226379,  -0.16017778,  0.026112009,  -0.25749332,  -0.44942605,  -0.44019616,  0.274741,  2.6683905,  -0.8024512,  0.38097662,  -0.83921003,  -0.73058444,  -1.8327886,  -1.2515906,  -0.5442559,  0.06929248,  -0.36355755,  0.9594021,  -0.32003185,  0.40407553,  -0.120589785,  -0.2859983,  0.78787947,  -0.5962653,  -0.75541973,  0.11024121,  0.0850703,  -0.589211,  -0.3450448,  0.03950129,  -0.18209326,  -0.029952379,  -0.6033057,  0.42069072,  0.17497835,  0.15624073,  -0.39590162,  0.25285214,  0.3285845,  0.32872435,  0.34499657,  -0.3111981,  -0.22528984,  -0.49573871,  0.20661783,  -0.28654101,  -0.36170954,  -0.20581812,  0.19807942,  -0.24078967,  -0.3195726,  0.34997052,  -0.101240985,  -0.26476556,  -0.16347364,  -0.15368427,  -0.37777635,  -0.33929518,  0.16689532,  -0.33860287,  0.01650596,  0.36168987,  0.10636875,  -0.4256099,  0.0009459734,  -0.02449684,  -0.21182537,  -0.18813002,  -0.31520247,  -0.37682396,  -0.24277715,  -0.34857133,  -0.15189916,  0.1991736,  -0.09332224,  0.4003627,  -0.41345003,  0.4171383,  0.18375093,  0.038839944,  0.21246117,  0.0844877,  -0.23518033,  -0.38315663,  -0.24893756,  0.2502149,  0.17923702,  0.072164774,  -0.09786411,  0.22975342,  0.4710747,  -0.23220447,  0.029449616,  0.21996461,  -0.18248713,  -0.05704496,  -0.340532,  -0.96214205,  -0.048135374,  -0.22861578,  -0.027529558,  1.0152516,  -1.2639408,  -0.7716487,  1.2961668,  -0.124882974,  0.19622445,  -1.7021967,  0.19281982,  -0.5038744,  0.13695082,  -0.91276217,  2.619148,  -1.5411233,  -0.6997131,  -0.072225966,  0.28720856,  -0.24592452,  -0.4331774,  -0.06622918,  -0.13407852,  0.21525355,  0.3560119,  0.13201332,  0.16632701,  -0.36126435,  -0.40789422,  0.11214352,  0.052030228,  0.41804302,  0.39926723,  0.11492713,  0.27726117,  0.4626625,  -0.12440683,  0.055103395,  -0.13941963,  -1.057712,  -0.38558233,  -0.032018334,  -0.16741683,  -0.7032409,  -1.5008839,  1.4795301,  -0.45450208,  0.3308368,  0.28248262,  -0.30272073,  0.15645856,  -0.2933304,  0.36409706,  -0.113291346,  0.36674955,  0.40278816,  0.045893583,  -0.009156646,  -0.2650694,  -0.28753644,  -0.31092185,  0.34969616,  -0.11842937,  0.30286884,  -0.10660179,  0.43704236,  -0.4051478,  -0.051049005,  -0.5134024,  0.03217178,  -0.1723103,  -0.23253496,  -0.21670786,  0.12492881,  0.4338969,  -0.19434883,  0.11011137,  0.20155008,  -0.18766938,  -0.36961466,  -0.004284844,  -0.3141975,  0.20130068,  0.41992876,  0.09914072,  0.16048299,  0.21400182,  };
#include <stdint.h>

const int inline_dense_2_MatMul_eightbit_dense_2_kernel_read__port__0_reshape_dims_0 [ 1 ] = {  -1,  };
#include <stdint.h>

const int inline_dense_2_MatMul_eightbit_dense_2_kernel_read__port__0_reduction_dims_0 [ 1 ] = {  0,  };
#include <stdint.h>

const float inline_dense_2_bias_0 [ 10 ] = {  -0.2834619,  -0.3434697,  0.43126148,  -0.17915411,  -0.26380467,  -0.1274434,  0.23880203,  0.56762964,  0.39853457,  0.17436133,  };
#include <stdint.h>

const int inline_dense_2_BiasAdd_eightbit_dense_2_bias_read__port__0_reshape_dims_0 [ 1 ] = {  -1,  };
#include <stdint.h>

const int inline_dense_2_BiasAdd_eightbit_dense_2_bias_read__port__0_reduction_dims_0 [ 1 ] = {  0,  };
#include <stdint.h>

const float inline_y_pred_kernel_0 [ 40 ] = {  -0.11450492,  -0.71981025,  -0.13346095,  0.66590965,  -0.7789857,  -0.4159894,  -0.51880264,  -0.44299874,  -2.525443,  4.139885,  -2.8356273,  -2.6050723,  -0.21877176,  0.47921464,  0.076338835,  -0.5257969,  -1.7381096,  1.8740532,  -0.56312937,  0.23667918,  0.5188886,  0.034310862,  -0.6473094,  -0.44538385,  0.052766148,  -2.0012674,  3.0465763,  -2.8356202,  3.494864,  -2.122638,  -2.7278047,  -2.9064994,  -3.5625482,  -2.4499645,  -2.318364,  2.9439979,  -3.8857222,  -0.75707144,  2.0031648,  -1.0967811,  };
#include <stdint.h>

const int inline_y_pred_MatMul_eightbit_y_pred_kernel_read__port__0_reshape_dims_0 [ 1 ] = {  -1,  };
#include <stdint.h>

const int inline_y_pred_MatMul_eightbit_y_pred_kernel_read__port__0_reduction_dims_0 [ 1 ] = {  0,  };
#include <stdint.h>

const float inline_y_pred_bias_0 [ 4 ] = {  0.20749563,  -1.0673132,  0.088174686,  0.35713318,  };
#include <stdint.h>

const int inline_y_pred_BiasAdd_eightbit_y_pred_bias_read__port__0_reshape_dims_0 [ 1 ] = {  -1,  };
#include <stdint.h>

const int inline_y_pred_BiasAdd_eightbit_y_pred_bias_read__port__0_reduction_dims_0 [ 1 ] = {  0,  };
